digraph Tree {
node [shape=box] ;
0 [label="Agency_Code <= 0.5\ngini = 0.42\nsamples = 2100\nvalue = [1471, 629]\nclass = no"] ;
1 [label="Sales <= 57.675\ngini = 0.484\nsamples = 670\nvalue = [276, 394]\nclass = yes"] ;
0 -> 1 [labeldistance=2.5, labelangle=45, headlabel="True"] ;
2 [label="Sales <= 17.935\ngini = 0.496\nsamples = 377\nvalue = [206, 171]\nclass = no"] ;
1 -> 2 ;
3 [label="gini = 0.385\nsamples = 100\nvalue = [74, 26]\nclass = no"] ;
2 -> 3 ;
4 [label="gini = 0.499\nsamples = 277\nvalue = [132, 145]\nclass = yes"] ;
2 -> 4 ;
5 [label="gini = 0.364\nsamples = 293\nvalue = [70, 223]\nclass = yes"] ;
1 -> 5 ;
6 [label="Sales <= 32.5\ngini = 0.275\nsamples = 1430\nvalue = [1195, 235]\nclass = no"] ;
0 -> 6 [labeldistance=2.5, labelangle=-45, headlabel="False"] ;
7 [label="Product Name <= 1.5\ngini = 0.161\nsamples = 783\nvalue = [714, 69]\nclass = no"] ;
6 -> 7 ;
8 [label="Duration <= 26.5\ngini = 0.097\nsamples = 430\nvalue = [408, 22]\nclass = no"] ;
7 -> 8 ;
9 [label="gini = 0.061\nsamples = 256\nvalue = [248, 8]\nclass = no"] ;
8 -> 9 ;
10 [label="gini = 0.148\nsamples = 174\nvalue = [160, 14]\nclass = no"] ;
8 -> 10 ;
11 [label="Duration <= 35.5\ngini = 0.231\nsamples = 353\nvalue = [306, 47]\nclass = no"] ;
7 -> 11 ;
12 [label="gini = 0.165\nsamples = 242\nvalue = [220, 22]\nclass = no"] ;
11 -> 12 ;
13 [label="gini = 0.349\nsamples = 111\nvalue = [86, 25]\nclass = no"] ;
11 -> 13 ;
14 [label="Product Name <= 1.5\ngini = 0.381\nsamples = 647\nvalue = [481, 166]\nclass = no"] ;
6 -> 14 ;
15 [label="gini = 0.199\nsamples = 205\nvalue = [182, 23]\nclass = no"] ;
14 -> 15 ;
16 [label="Age <= 35.5\ngini = 0.438\nsamples = 442\nvalue = [299, 143]\nclass = no"] ;
14 -> 16 ;
17 [label="gini = 0.492\nsamples = 124\nvalue = [70, 54]\nclass = no"] ;
16 -> 17 ;
18 [label="Duration <= 29.5\ngini = 0.403\nsamples = 318\nvalue = [229, 89]\nclass = no"] ;
16 -> 18 ;
19 [label="gini = 0.359\nsamples = 149\nvalue = [114, 35]\nclass = no"] ;
18 -> 19 ;
20 [label="gini = 0.435\nsamples = 169\nvalue = [115, 54]\nclass = no"] ;
18 -> 20 ;
}